{
  "input_sequences": [],
  "inputs": [
    {
      "name": "input",
      "variables": [
        {
          "name": "seed_chi2PerDoF",
          "offset": -1.640568336346315,
          "scale": 0.974822062787818
        },
        {
          "name": "seed_p",
          "offset": -9.003331795929764,
          "scale": 1.01528773011697
        },
        {
          "name": "seed_pt",
          "offset": -7.096047517131157,
          "scale": 2.175854786268049
        },
        {
          "name": "seed_x",
          "offset": 6.694118621597481,
          "scale": 0.001424639371506
        },
        {
          "name": "seed_y",
          "offset": -2.294639912651397,
          "scale": 0.001868877076397
        },
        {
          "name": "seed_tx",
          "offset": 0.006393834643134,
          "scale": 0.001868877076397
        },
        {
          "name": "seed_ty",
          "offset": -0.00029933106538,
          "scale": 14.498204168032636
        },
        {
          "name": "seed_r",
          "offset": -705.4816542920508,
          "scale": 0.001885230669461
        },
        {
          "name": "seed_angle",
          "offset": -0.002342610191977,
          "scale": 1.319436083442086
        },
        {
          "name": "seed_pseudorapidity",
          "offset": -0.21884202034218,
          "scale": 5.735393657268749
        }
      ]
    }
  ],
  "layers": [
    {
      "activation": "rectified",
      "architecture": "dense",
      "bias": [
        -1.3644115924835205,
        -1.016470193862915,
        -1.3595161437988281,
        -2.4964821338653564,
        -0.18529090285301208,
        -0.8212502598762512,
        -0.1674550324678421,
        -2.1852810382843018,
        -0.6563518047332764,
        -3.046082019805908,
        -1.5140101909637451,
        -1.13924241065979,
        -3.189140796661377,
        -1.0466890335083008,
        0.9245045185089111,
        -0.9582356810569763,
        -0.6768320798873901,
        -2.046278238296509,
        0.7191013097763062,
        -1.077497124671936,
        0.2980627417564392,
        -1.4529989957809448,
        -1.5635325908660889,
        0.3934703767299652,
        -2.931673765182495,
        -2.30527400970459,
        0.08320239186286926,
        -1.9408224821090698,
        -3.076871633529663,
        -1.1683205366134644,
        -2.2962048053741455,
        -3.9079980850219727,
        -0.3048728406429291,
        -0.5376800894737244,
        -1.7029749155044556,
        -2.015202283859253,
        0.49573928117752075,
        -3.4672014713287354,
        -0.6448871493339539,
        -3.1307806968688965,
        0.11025635898113251,
        -1.3493183851242065,
        0.310931921005249,
        -1.4596456289291382,
        -0.69093257188797,
        -1.8775627613067627,
        -0.9805606603622437,
        -2.620265007019043,
        0.12477195262908936,
        0.7826274037361145,
        -2.2444355487823486,
        -1.3202930688858032,
        -1.3031753301620483,
        -1.031105637550354,
        -0.5558444857597351,
        -1.4476324319839478,
        -3.223698616027832,
        0.6871817708015442,
        -3.0849719047546387,
        -1.5104283094406128,
        -1.0712684392929077,
        -0.8299047946929932,
        -1.5170865058898926,
        0.5184841156005859
      ],
      "weights": [
        0.030401090160012245,
        -0.43859970569610596,
        -1.1243263483047485,
        0.13481681048870087,
        -0.13219131529331207,
        -0.11637932062149048,
        0.17695645987987518,
        -1.9479117393493652,
        0.1041882336139679,
        1.3923364877700806,
        -0.044785767793655396,
        -0.19494616985321045,
        0.36168259382247925,
        -1.3795708417892456,
        -0.7149383425712585,
        0.9874496459960938,
        0.18740390241146088,
        0.1545158475637436,
        0.5252090096473694,
        -0.5440807938575745,
        -0.1499943882226944,
        0.10550446808338165,
        -0.1921929568052292,
        -0.042648881673812866,
        2.652728319168091,
        0.33232253789901733,
        -2.393444061279297,
        -0.048242803663015366,
        0.00588127551600337,
        -0.7806645631790161,
        0.0016593793407082558,
        0.6894917488098145,
        0.46268659830093384,
        0.08896007388830185,
        0.5591530203819275,
        0.3707840144634247,
        -0.42621493339538574,
        -1.237606167793274,
        -0.14526034891605377,
        1.4461705684661865,
        0.039633799344301224,
        -2.2598185539245605,
        -0.21110309660434723,
        -0.07069419324398041,
        0.08141469955444336,
        -0.01792837120592594,
        0.08966094255447388,
        -1.732717752456665,
        0.08809688687324524,
        0.4635041356086731,
        -0.06785502284765244,
        -0.6624287366867065,
        0.24658514559268951,
        0.10310567915439606,
        -0.26410290598869324,
        0.0013122562086209655,
        -0.05588589981198311,
        -0.5623893141746521,
        2.4170150756835938,
        0.438684344291687,
        -0.0515039823949337,
        0.037981342524290085,
        -0.000496259075589478,
        -0.0005732814897783101,
        -3.6208670139312744,
        0.04167122393846512,
        3.471938371658325,
        0.15326842665672302,
        -0.0022015832364559174,
        -0.40700531005859375,
        -0.11018040776252747,
        0.22077329456806183,
        -0.13808761537075043,
        -0.15344253182411194,
        0.5656031370162964,
        0.03172032907605171,
        1.0842231512069702,
        -0.5987433791160583,
        0.03304816037416458,
        1.1448791027069092,
        -0.058581430464982986,
        0.07078053802251816,
        -0.4386141896247864,
        1.3194694519042969,
        0.7284687757492065,
        0.18584273755550385,
        -1.2371118068695068,
        0.6306244730949402,
        0.17163291573524475,
        -1.4796255826950073,
        0.04903294891119003,
        -0.9228179454803467,
        0.07830052077770233,
        1.2671056985855103,
        -0.47908464074134827,
        -0.9834421277046204,
        -0.2180151492357254,
        0.6720731854438782,
        0.1996873915195465,
        -0.14753755927085876,
        -0.10156971216201782,
        0.8186179995536804,
        0.4586450159549713,
        0.19200663268566132,
        -0.43949034810066223,
        -0.39272645115852356,
        0.32329317927360535,
        2.1217362880706787,
        -0.07187798619270325,
        -2.112684488296509,
        0.03625822067260742,
        0.1538112461566925,
        -0.1424320787191391,
        0.6094068884849548,
        5.212296009063721,
        -0.583854079246521,
        1.3677616119384766,
        0.4527074694633484,
        0.009810100309550762,
        -0.15323211252689362,
        -0.0668969452381134,
        -1.5903339385986328,
        -1.4904590845108032,
        0.01373072899878025,
        -0.24341179430484772,
        -0.03835650905966759,
        -0.040883176028728485,
        0.8768941164016724,
        0.0458206981420517,
        0.5020725131034851,
        0.08092223852872849,
        0.7002928256988525,
        -0.18080544471740723,
        -0.9375758171081543,
        0.5734137892723083,
        1.3065139055252075,
        -0.8647032976150513,
        1.6536905765533447,
        0.2286941409111023,
        -1.5594531297683716,
        -0.03555910289287567,
        0.18202471733093262,
        0.023885583505034447,
        -0.32535266876220703,
        -1.465011715888977,
        0.36272624135017395,
        -0.16972443461418152,
        2.544728994369507,
        -0.0063965958543121815,
        -1.6533242464065552,
        -0.17462366819381714,
        -0.28253766894340515,
        0.19571137428283691,
        0.043413709849119186,
        2.126615047454834,
        -0.18398737907409668,
        -0.7701953649520874,
        0.15584957599639893,
        0.12385087460279465,
        -0.9507806301116943,
        -0.025824183598160744,
        0.013936186209321022,
        0.02247542329132557,
        -2.3900182247161865,
        0.41397154331207275,
        2.8224897384643555,
        -0.37522822618484497,
        -0.07030128687620163,
        0.01881381683051586,
        -0.41306957602500916,
        -0.04863860458135605,
        -1.8405767679214478,
        -1.2154508829116821,
        -0.021123703569173813,
        0.359039843082428,
        -0.003932673949748278,
        -0.49441418051719666,
        -0.21193255484104156,
        0.04746554046869278,
        -0.12575897574424744,
        -0.0019503833027556539,
        0.2719438076019287,
        -0.3562925457954407,
        0.1979474276304245,
        -3.0378010272979736,
        -0.13749265670776367,
        2.541443347930908,
        1.4300683736801147,
        0.014695881865918636,
        -1.1699886322021484,
        0.024523353204131126,
        0.15554668009281158,
        -0.18026414513587952,
        -0.2803506851196289,
        -4.753518104553223,
        0.29071474075317383,
        -1.146895408630371,
        0.38251107931137085,
        0.006412391550838947,
        -0.12118659913539886,
        -0.03984710946679115,
        0.7929506301879883,
        -2.4430553913116455,
        -0.0477403849363327,
        0.6887634992599487,
        0.08949542045593262,
        -1.6685861349105835,
        1.1573143005371094,
        -0.007938800379633904,
        -0.29684239625930786,
        -0.003734024940058589,
        0.18444082140922546,
        -0.14328864216804504,
        -1.3393851518630981,
        -0.45394402742385864,
        -0.27103301882743835,
        -0.5379034280776978,
        -1.3652775287628174,
        -0.01035777386277914,
        0.1484459489583969,
        -0.10576917231082916,
        1.5716801881790161,
        -0.980014979839325,
        1.1488077640533447,
        -0.09035307914018631,
        -1.8562482595443726,
        0.10056457668542862,
        0.7094467282295227,
        0.10225415229797363,
        0.09279505163431168,
        0.040038902312517166,
        -0.3251161575317383,
        1.578600525856018,
        0.2351415604352951,
        0.09563400596380234,
        -0.26765039563179016,
        0.10339643061161041,
        1.795969009399414,
        0.5074051022529602,
        -1.3432711362838745,
        -0.04591384530067444,
        -1.044885516166687,
        -1.3568209409713745,
        0.06276091933250427,
        0.01237712986767292,
        0.008552518673241138,
        0.9864076375961304,
        0.3563125729560852,
        -0.07632267475128174,
        0.6282241344451904,
        0.004704244900494814,
        -0.868033766746521,
        -0.9013752341270447,
        0.2275678813457489,
        -0.6889118552207947,
        -0.04960791394114494,
        -0.2641635835170746,
        -0.6748605370521545,
        0.034040335565805435,
        0.3919891119003296,
        -0.019667377695441246,
        -0.6473430395126343,
        1.6720036268234253,
        0.08460579812526703,
        0.34033671021461487,
        -0.12143351137638092,
        -0.18745745718479156,
        1.0770238637924194,
        -0.6156283020973206,
        -1.0887293815612793,
        0.03703094273805618,
        -1.5549790859222412,
        -0.7256627678871155,
        -0.43698999285697937,
        0.18731586635112762,
        0.11728552728891373,
        0.4883752167224884,
        -0.1882309466600418,
        0.06789842247962952,
        0.1269315779209137,
        0.18578405678272247,
        0.0824078917503357,
        0.345213919878006,
        0.34471046924591064,
        -0.2946184575557709,
        -0.40807947516441345,
        0.24072131514549255,
        -0.1920512467622757,
        0.6765730381011963,
        -0.01624353416264057,
        -0.48343679308891296,
        -0.4293515384197235,
        -0.032369501888751984,
        0.13709861040115356,
        -0.3465609550476074,
        -0.0369136668741703,
        1.2149686813354492,
        -0.7273281812667847,
        -0.04379374533891678,
        -0.01564336195588112,
        -0.10566144436597824,
        -0.10523968189954758,
        0.04704674333333969,
        1.8700255155563354,
        0.1769074946641922,
        -1.9284229278564453,
        0.23524416983127594,
        -0.0339602530002594,
        -0.08458071202039719,
        0.25365450978279114,
        0.15848621726036072,
        -0.3759101927280426,
        -0.13654357194900513,
        -0.24485032260417938,
        -0.20402120053768158,
        0.17359216511249542,
        0.19678662717342377,
        2.1439669132232666,
        0.002524681854993105,
        -0.43616166710853577,
        0.03488922864198685,
        -0.11240807175636292,
        -0.21949926018714905,
        -0.003908790182322264,
        -0.10613873600959778,
        0.02853166125714779,
        0.34060510993003845,
        -1.318529725074768,
        1.1244229078292847,
        0.3976743817329407,
        0.011785289272665977,
        0.0600007101893425,
        -0.7947568297386169,
        -2.202486038208008,
        0.22999338805675507,
        0.16646714508533478,
        -0.2797938287258148,
        0.9028631448745728,
        0.06572446972131729,
        -1.412526249885559,
        0.15259484946727753,
        -0.6411874890327454,
        -0.36003774404525757,
        -0.10312867909669876,
        -0.18767806887626648,
        0.2527098059654236,
        0.13513682782649994,
        0.3737630546092987,
        -0.806717574596405,
        -0.8030301332473755,
        -0.007683536037802696,
        0.31651246547698975,
        -0.1528705656528473,
        0.014036478474736214,
        0.1559867560863495,
        -0.08860663324594498,
        -0.1319306492805481,
        -2.3682684898376465,
        0.011169890873134136,
        0.15372496843338013,
        -0.034555379301309586,
        -0.04975380375981331,
        -0.01956336200237274,
        0.03501342609524727,
        -3.7142817974090576,
        -0.04315420985221863,
        3.827355146408081,
        0.041161421686410904,
        -0.015112659893929958,
        0.011334306560456753,
        -0.006720306351780891,
        -0.2964138090610504,
        -0.1491498351097107,
        -1.3037171363830566,
        -0.4500914514064789,
        1.3365366458892822,
        0.361909419298172,
        0.474758118391037,
        0.017067838460206985,
        0.23008646070957184,
        -0.02694028988480568,
        0.10476938635110855,
        0.1612640917301178,
        -0.07939823716878891,
        2.3083300590515137,
        -0.03379158303141594,
        -2.6317014694213867,
        0.11699836701154709,
        -0.02882128208875656,
        -1.3937543630599976,
        0.04275474324822426,
        -0.020611312240362167,
        0.3598073124885559,
        0.41125234961509705,
        1.8482975959777832,
        0.01751081645488739,
        -1.5823912620544434,
        -0.09008362889289856,
        -0.34307652711868286,
        0.36147111654281616,
        -0.038034871220588684,
        -0.28797125816345215,
        0.31913691759109497,
        -0.057469770312309265,
        -1.0599315166473389,
        0.02951243333518505,
        -1.5382834672927856,
        -1.7370015382766724,
        -0.03111046738922596,
        1.5750420093536377,
        0.6648602485656738,
        -0.8854106068611145,
        0.5770871043205261,
        0.17455998063087463,
        0.8851351141929626,
        -0.1332186758518219,
        -0.9640295505523682,
        0.32782238721847534,
        -0.13093018531799316,
        -0.2755909562110901,
        -0.08210064470767975,
        -0.8744677305221558,
        2.081155300140381,
        -0.1008685752749443,
        0.24329490959644318,
        0.12315250188112259,
        0.1865684688091278,
        -1.4453022480010986,
        -0.025789765641093254,
        2.102898359298706,
        -0.030048051849007607,
        -0.30868518352508545,
        0.12423169612884521,
        -0.03456287458539009,
        -0.8590275645256042,
        -0.044518426060676575,
        0.5112055540084839,
        -2.5263588428497314,
        -0.006412738002836704,
        0.21534955501556396,
        0.006444222293794155,
        -1.3125338554382324,
        -3.438988447189331,
        -0.0015777603257447481,
        -0.333657830953598,
        0.0613660104572773,
        0.20307867228984833,
        1.2374483346939087,
        0.03432152420282364,
        -1.0402761697769165,
        0.007316431496292353,
        -0.8402750492095947,
        0.03509034588932991,
        -0.0797836184501648,
        0.49350860714912415,
        -0.1957499086856842,
        0.3449729382991791,
        -1.41734778881073,
        0.03249697759747505,
        -0.7890366315841675,
        0.017757318913936615,
        -0.15840834379196167,
        -0.053142301738262177,
        3.4736924171447754,
        0.13128185272216797,
        -3.4640862941741943,
        -0.06147908791899681,
        -0.1781361699104309,
        -0.0038780353497713804,
        -0.7758443355560303,
        -0.13375802338123322,
        0.17693334817886353,
        -0.5356581211090088,
        -0.030361633747816086,
        -0.41212114691734314,
        -0.041467372328042984,
        -1.1627836227416992,
        -0.5744718313217163,
        -0.1493902951478958,
        1.3160995244979858,
        -0.15813599526882172,
        0.014954227022826672,
        -0.08278235793113708,
        -0.07306390255689621,
        -3.9010634422302246,
        0.05804017558693886,
        2.6591556072235107,
        0.07522168755531311,
        0.017494384199380875,
        -0.19525082409381866,
        0.0003604052180889994,
        0.05926204472780228,
        0.019796861335635185,
        0.11915314942598343,
        2.1048970222473145,
        -0.0791933611035347,
        -0.26488763093948364,
        2.1545097827911377,
        -0.04486066475510597,
        -1.600021481513977,
        0.02983778528869152,
        0.6714795827865601,
        -0.39594870805740356,
        -0.14618287980556488,
        -0.061546001583337784,
        0.0858917310833931,
        0.12547889351844788,
        -2.1629598140716553,
        -0.03501827269792557,
        0.2802290618419647,
        -0.721196711063385,
        -1.03337824344635,
        0.7964550256729126,
        0.09373800456523895,
        0.9702401161193848,
        -0.012760656885802746,
        -0.41707760095596313,
        -0.47288233041763306,
        0.20120637118816376,
        -0.7085607647895813,
        -0.0653691291809082,
        0.013991013169288635,
        0.017917092889547348,
        0.03130102902650833,
        2.361707925796509,
        0.11068005114793777,
        -2.465520143508911,
        -1.402235984802246,
        -0.037021756172180176,
        0.029475636780261993,
        0.036480989307165146,
        -0.6738333702087402,
        -0.35627907514572144,
        1.6506911516189575,
        -0.07548195868730545,
        -0.015789015218615532,
        0.48342740535736084,
        0.2808513343334198,
        -0.10963886976242065,
        -0.8287542462348938,
        -0.0473921075463295,
        -0.4064977169036865,
        0.05054410547018051,
        0.05338035151362419,
        0.18465280532836914,
        0.05958519130945206,
        0.08883611112833023,
        -1.4838262796401978,
        -0.9764065742492676,
        0.16327226161956787,
        0.00971826072782278,
        0.15434837341308594,
        -0.21022605895996094,
        1.6109569072723389,
        -0.40020808577537537,
        -0.01030418649315834,
        -0.5266053080558777,
        -1.2608997821807861,
        -0.07781250774860382,
        0.10424982756376266,
        0.13071434199810028,
        -0.38228389620780945,
        0.4258742332458496,
        -0.724145770072937,
        0.052485816180706024,
        -0.14574360847473145,
        0.5839475989341736,
        -0.7625098824501038,
        0.4469454884529114,
        0.3417975902557373,
        1.1741857528686523,
        0.0748305469751358,
        0.11510208994150162,
        0.02250184863805771,
        -0.36465737223625183,
        -0.0688701942563057,
        -0.03773864731192589,
        0.36742979288101196,
        -0.01796882227063179,
        -0.14276283979415894,
        0.12775060534477234,
        0.6952807307243347,
        -1.033558964729309,
        -0.09556666016578674,
        1.047967791557312,
        0.2775171995162964,
        -0.2056448757648468,
        0.7031049132347107,
        -0.10740247368812561,
        -0.46361300349235535,
        0.14640146493911743,
        -0.07193760573863983,
        -0.6900272965431213,
        -0.1667366474866867,
        -1.0537406206130981,
        -0.4859207570552826,
        1.6362826824188232,
        -0.22260114550590515,
        0.07383409142494202,
        -0.3118988871574402,
        -0.002608825219795108,
        -0.19097334146499634,
        -0.07405857741832733,
        -2.7669575214385986,
        0.3668610751628876,
        2.2906482219696045,
        -0.16752175986766815,
        -0.2769423723220825,
        -0.0353643074631691,
        -0.6415961384773254,
        -0.011670822277665138,
        -0.6445080637931824,
        0.1452098786830902,
        -0.21706035733222961,
        -0.30510684847831726,
        0.10459531843662262,
        0.005397499073296785,
        -0.2934141457080841,
        -2.3416686058044434,
        0.38976621627807617,
        0.09824392199516296,
        0.6422820687294006,
        0.11389360576868057,
        0.38955631852149963,
        2.073887348175049,
        -0.3843635618686676,
        -1.8484476804733276,
        0.9075757265090942,
        -0.1420588493347168,
        -0.8599803447723389,
        -0.06964681297540665,
        -0.01917341910302639,
        -0.00017741063493303955,
        0.053295835852622986,
        4.300176620483398,
        -0.024710142984986305,
        -4.170053958892822,
        0.05207470804452896,
        -0.017199376598000526,
        0.006871086545288563
      ]
    },
    {
      "activation": "rectified",
      "architecture": "dense",
      "bias": [
        -5.46903133392334,
        0.1448381096124649,
        1.3140028715133667,
        -1.4053322076797485,
        -1.434848427772522,
        1.6604335308074951,
        -1.3743153810501099,
        -0.32022902369499207,
        0.1402219980955124,
        -0.6810166239738464,
        0.61407071352005,
        -2.2545969486236572,
        0.24860046803951263,
        -7.37616491317749,
        -0.3635678291320801,
        -4.0095953941345215,
        -0.32524996995925903,
        -0.6486721634864807,
        -1.170547604560852,
        -0.8898391127586365,
        1.8390897512435913,
        -0.6837837100028992,
        -0.7389281988143921,
        -0.161665141582489,
        1.124879240989685,
        1.2308605909347534,
        -0.13736888766288757,
        -1.5239990949630737,
        -1.1686984300613403,
        -2.779301404953003,
        1.4739528894424438,
        -0.32503095269203186,
        -6.575754642486572,
        -0.760026752948761,
        -6.835977077484131,
        -0.1869605928659439,
        1.1433066129684448,
        -0.47343695163726807,
        -2.594165802001953,
        -0.8085960149765015,
        1.8737722635269165,
        -2.7576165199279785,
        -3.2750813961029053,
        0.8653591871261597,
        -2.082529067993164,
        -0.12285736948251724,
        -5.332317352294922,
        1.8731250762939453,
        -0.11999621242284775,
        -0.4058557450771332,
        -0.3299415707588196,
        2.192101001739502,
        1.7400131225585938,
        1.6455166339874268,
        1.540784239768982,
        -0.529956579208374,
        -0.4231853187084198,
        -6.44871187210083,
        0.9708964228630066,
        -1.1382168531417847,
        1.294762134552002,
        -0.2513580322265625,
        -0.13489048182964325,
        -0.9441136717796326
      ],
      "weights": [
        -0.4166266620159149,
        0.8187031149864197,
        2.916299343109131,
        3.0367400646209717,
        -1.2700860500335693,
        -0.018446795642375946,
        -0.9709967374801636,
        0.5501657724380493,
        -0.1560686081647873,
        2.2410356998443604,
        -0.18695209920406342,
        0.005672149825841188,
        -0.43660885095596313,
        -0.36415621638298035,
        -0.116755411028862,
        0.27486103773117065,
        -0.3441292643547058,
        1.1062437295913696,
        -1.6897222995758057,
        1.3148605823516846,
        -2.908339023590088,
        0.3879271447658539,
        -1.5516530275344849,
        -0.7984293103218079,
        -0.4089188277721405,
        1.1522572040557861,
        -0.9746912121772766,
        -0.16810490190982819,
        2.7044365406036377,
        2.1685523986816406,
        0.5352432131767273,
        2.8190317153930664,
        2.538557529449463,
        0.9772253632545471,
        0.5617625117301941,
        0.7884843945503235,
        -1.6683948040008545,
        1.5105913877487183,
        0.9436869621276855,
        3.856494903564453,
        -1.585127592086792,
        1.6953763961791992,
        -1.1674981117248535,
        1.0166995525360107,
        -1.2785332202911377,
        4.353409290313721,
        1.1532273292541504,
        2.1667416095733643,
        -0.823418378829956,
        -1.0914989709854126,
        1.665413737297058,
        3.386935234069824,
        1.8963426351547241,
        4.43148136138916,
        2.5375914573669434,
        -0.201982781291008,
        3.307638645172119,
        -1.2680455446243286,
        0.16651619970798492,
        1.5983725786209106,
        1.1483656167984009,
        -0.07737896591424942,
        0.6864213943481445,
        -1.9630769491195679,
        0.14817874133586884,
        -0.14642654359340668,
        -0.6138302683830261,
        0.26799121499061584,
        0.26404398679733276,
        -0.00039530900539830327,
        -5.795703411102295,
        -2.8296661376953125,
        0.6178843975067139,
        -0.48111972212791443,
        0.49816492199897766,
        -0.16903693974018097,
        0.9975149631500244,
        -0.07750360667705536,
        0.3099611699581146,
        0.8128489255905151,
        -1.1861960887908936,
        1.585713505744934,
        -0.4104479253292084,
        -1.0001752376556396,
        0.4317670464515686,
        0.3907521367073059,
        -0.4826524555683136,
        0.05288810655474663,
        -1.8035688400268555,
        0.1045026183128357,
        -0.057329148054122925,
        -0.8497361540794373,
        0.6524563431739807,
        -0.1985825002193451,
        -2.1267106533050537,
        0.40856054425239563,
        0.1651020646095276,
        0.153165802359581,
        -0.2321709841489792,
        0.3272382616996765,
        -5.4195332527160645,
        -4.6280317306518555,
        1.1562762260437012,
        -3.1643576622009277,
        -0.07301962375640869,
        0.051408663392066956,
        -0.7806772589683533,
        -0.5872787237167358,
        0.005137608386576176,
        0.12670676410198212,
        -1.1536532640457153,
        -0.07901871204376221,
        -0.7383821606636047,
        0.532256007194519,
        -0.5031241774559021,
        0.06205955520272255,
        0.40390831232070923,
        -0.4498816132545471,
        0.5939411520957947,
        -0.3572228252887726,
        -3.115596055984497,
        -0.0027452989015728235,
        -0.4882848560810089,
        -0.6549645066261292,
        -0.7524040341377258,
        -0.1668318212032318,
        -0.4274612069129944,
        3.2054715156555176,
        -0.3458784222602844,
        1.3931056261062622,
        -0.2010284662246704,
        -0.9532641172409058,
        -1.5922764539718628,
        -0.41041186451911926,
        -1.1182705163955688,
        1.3028074502944946,
        -0.3194430470466614,
        -0.12141194194555283,
        -1.3149312734603882,
        -0.458889365196228,
        0.2764451205730438,
        -0.6486895680427551,
        -0.35349372029304504,
        -0.5110548734664917,
        -0.027899907901883125,
        -0.3509916365146637,
        -0.4080905318260193,
        -1.5685524940490723,
        -0.994949996471405,
        0.27704358100891113,
        -3.5255110263824463,
        1.2289557456970215,
        0.6780208349227905,
        -0.44698479771614075,
        0.40776461362838745,
        0.12878935039043427,
        -2.1630895137786865,
        1.3711425065994263,
        3.632939338684082,
        1.4060773849487305,
        -2.0078911781311035,
        -0.047479718923568726,
        1.1391347646713257,
        -0.7657440304756165,
        0.7343090176582336,
        3.194556474685669,
        0.14869600534439087,
        0.6934992074966431,
        -0.08718343824148178,
        -0.18148809671401978,
        0.3939512073993683,
        -0.673307478427887,
        -3.6675353050231934,
        2.4549753665924072,
        -0.5070539116859436,
        1.8664246797561646,
        -0.03997951000928879,
        -0.6795966029167175,
        -1.3412771224975586,
        -1.1680829524993896,
        0.20326749980449677,
        0.4440764784812927,
        -0.778045654296875,
        0.38677582144737244,
        1.0786339044570923,
        0.15859375894069672,
        1.047258734703064,
        0.45660996437072754,
        -1.1119256019592285,
        0.8843038082122803,
        -1.061048984527588,
        -0.20661748945713043,
        -0.9253941178321838,
        0.5166842341423035,
        2.0856993198394775,
        -1.501002311706543,
        -0.6323252320289612,
        0.13610996305942535,
        -0.8199939131736755,
        2.752720832824707,
        -0.6406826376914978,
        3.5045762062072754,
        -1.3186860084533691,
        0.31159213185310364,
        0.04827205091714859,
        0.9100375175476074,
        -0.011510158888995647,
        0.5277778506278992,
        1.0177512168884277,
        0.37826409935951233,
        -1.2210619449615479,
        0.2079976201057434,
        -0.1485818475484848,
        -0.2588101625442505,
        2.0912721157073975,
        0.20272332429885864,
        -0.31523266434669495,
        1.7001304626464844,
        -0.3294840157032013,
        0.16092203557491302,
        -4.3490705490112305,
        0.02011970244348049,
        1.4243319034576416,
        4.8367180824279785,
        -0.4659811556339264,
        -0.6730746626853943,
        0.48702624440193176,
        -6.6644206047058105,
        -0.2553279399871826,
        5.8869404792785645,
        1.05166757106781,
        2.048258066177368,
        -0.03857346996665001,
        2.006577968597412,
        0.8122107982635498,
        1.1602694988250732,
        0.5021416544914246,
        0.7309874296188354,
        0.7582011818885803,
        2.462128162384033,
        -0.0735919252038002,
        -0.20069406926631927,
        -8.120025634765625,
        -1.8814318180084229,
        0.7599077224731445,
        -0.5829902291297913,
        -0.24055135250091553,
        -0.9595212936401367,
        -1.108497977256775,
        2.1175568103790283,
        1.0382881164550781,
        0.8679875135421753,
        0.7787861824035645,
        0.2745385766029358,
        2.865039587020874,
        1.3169890642166138,
        -0.6849951148033142,
        -0.8831256628036499,
        0.7165893316268921,
        -0.4297023415565491,
        -0.7274613380432129,
        -3.1063880920410156,
        1.2768440246582031,
        -7.5896148681640625,
        0.04846445471048355,
        -2.052178382873535,
        0.242445707321167,
        -0.26000627875328064,
        0.5812742710113525,
        0.192836195230484,
        -0.0033362600952386856,
        1.5452228784561157,
        -0.1654662936925888,
        0.7991604804992676,
        0.7042466998100281,
        -0.382683664560318,
        -0.48316437005996704,
        -0.75340735912323,
        1.1362895965576172,
        0.21800529956817627,
        -0.4903222620487213,
        0.2602664530277252,
        -1.0305812358856201,
        1.267974615097046,
        -2.03877854347229,
        -0.20531535148620605,
        -6.035451412200928,
        -3.1907122135162354,
        -0.7409141659736633,
        0.8867595195770264,
        -0.8048065304756165,
        0.321679025888443,
        0.7056677341461182,
        -5.986086845397949,
        0.10433685779571533,
        -0.44963738322257996,
        0.3081274628639221,
        1.4836755990982056,
        -0.7938280701637268,
        -0.3447946310043335,
        0.01638994924724102,
        -6.902388572692871,
        -0.5620027780532837,
        0.26920434832572937,
        0.3864745497703552,
        0.07928428053855896,
        0.341469943523407,
        -6.615045070648193,
        -0.6771058440208435,
        0.7531620264053345,
        -1.4692434072494507,
        0.3497419059276581,
        -0.639812171459198,
        -0.16551312804222107,
        1.3649955987930298,
        -0.5365440249443054,
        -0.552183210849762,
        -0.9799586534500122,
        0.4269261956214905,
        -2.382502555847168,
        0.2941495478153229,
        0.3030509054660797,
        -1.020440697669983,
        0.3030379116535187,
        0.23617476224899292,
        -0.3026355504989624,
        -0.2679729759693146,
        -2.4096896648406982,
        -0.08655514568090439,
        0.15829944610595703,
        -3.162985324859619,
        -2.449772357940674,
        0.8555371165275574,
        -0.8974183201789856,
        0.036759164184331894,
        -0.20414051413536072,
        -0.9811311960220337,
        0.8148695826530457,
        -0.20405049622058868,
        -0.14066475629806519,
        0.5942433476448059,
        -0.11557966470718384,
        -2.466125249862671,
        -0.5104056596755981,
        -0.5431303977966309,
        0.6196430921554565,
        0.16234709322452545,
        -0.11128266155719757,
        -0.1999409943819046,
        0.1476951539516449,
        -0.18226848542690277,
        -2.485377550125122,
        0.059230927377939224,
        0.3692393898963928,
        0.3733035624027252,
        -1.262850284576416,
        -0.21764221787452698,
        -2.4239859580993652,
        0.30443626642227173,
        -3.0868442058563232,
        0.1686374545097351,
        0.10443849861621857,
        0.045608729124069214,
        0.4570702910423279,
        0.5725396871566772,
        -0.004797436762601137,
        -2.022307872772217,
        -0.8608307242393494,
        -0.873598575592041,
        -0.3353224992752075,
        -3.3792264461517334,
        -0.20033201575279236,
        0.9098988771438599,
        0.4565906226634979,
        -0.18639017641544342,
        -0.04312897473573685,
        -0.837424635887146,
        0.3003787696361542,
        -2.122509479522705,
        -1.468349814414978,
        -1.450257658958435,
        -0.3708169460296631,
        -1.6515297889709473,
        0.5374243855476379,
        0.2791186273097992,
        -1.515830159187317,
        -0.15327270328998566,
        -1.504258155822754,
        0.8563941717147827,
        -0.39872121810913086,
        -0.5532652139663696,
        0.8287870287895203,
        -0.6723143458366394,
        1.5911482572555542,
        -13.495267868041992,
        0.2479667216539383,
        1.1598968505859375,
        -2.0288548469543457,
        -5.846386432647705,
        -0.28126007318496704,
        0.1298958659172058,
        0.4657706916332245,
        -2.048983097076416,
        -0.8364096283912659,
        0.7415148019790649,
        0.8470209240913391,
        -1.225115180015564,
        -9.327363014221191,
        0.770422637462616,
        -0.7992177605628967,
        -5.0432353019714355,
        0.2302611917257309,
        0.10142943263053894,
        0.6885616183280945,
        -0.37761688232421875,
        -1.277237892150879,
        0.08937517553567886,
        -1.047423005104065,
        0.9870924353599548,
        2.0659401416778564,
        0.2596926689147949,
        -1.1981772184371948,
        -0.7861208319664001,
        0.8344901204109192,
        0.07648926973342896,
        0.3348695635795593,
        0.295274019241333,
        1.4858561754226685,
        1.004591703414917,
        0.2340964823961258,
        -1.641983985900879,
        0.5247464179992676,
        -0.04915248602628708,
        -3.9221127033233643,
        3.1345596313476562,
        -0.4891754984855652,
        0.6360487341880798,
        -0.3753606379032135,
        0.1349610984325409,
        -0.1588061898946762,
        0.4916299283504486,
        -0.2465272843837738,
        -1.5018489360809326,
        -0.9387534856796265,
        -2.124265193939209,
        -0.6860949993133545,
        -0.3955191671848297,
        0.2504435181617737,
        -0.8757169842720032,
        -2.10994029045105,
        -0.5069116353988647,
        0.3386121988296509,
        -0.5002613067626953,
        -0.901889443397522,
        0.14738987386226654,
        0.6689714789390564,
        0.2518630921840668,
        -0.6815627813339233,
        0.5659878253936768,
        -0.9070083498954773,
        -0.022229433059692383,
        1.7846508026123047,
        -1.787380337715149,
        -0.08134492486715317,
        0.4631519317626953,
        -0.7093859314918518,
        0.5007286667823792,
        -0.515460193157196,
        0.43475061655044556,
        -0.043009862303733826,
        -0.23685653507709503,
        -1.4296132326126099,
        0.8179372549057007,
        -0.5851772427558899,
        -0.6669901013374329,
        -0.9208101034164429,
        -0.1318088173866272,
        -0.16132870316505432,
        -1.3398972749710083,
        -0.719794511795044,
        -2.8457391262054443,
        -0.049442268908023834,
        -1.0356366634368896,
        -1.225459337234497,
        -0.4195798337459564,
        1.1256672143936157,
        0.23269875347614288,
        -2.6783313751220703,
        -0.2427930235862732,
        -0.9196105003356934,
        0.46642160415649414,
        0.0017072390764951706,
        0.7049041390419006,
        -0.41333362460136414,
        1.1771652698516846,
        -4.678897380828857,
        0.35292893648147583,
        0.023485355079174042,
        -1.564149022102356,
        0.28619781136512756,
        -0.5194780826568604,
        0.09109123796224594,
        0.27193185687065125,
        -0.6250272989273071,
        -4.383788585662842,
        0.0833573043346405,
        -0.7094287872314453,
        -0.3961753845214844,
        1.4450196027755737,
        0.46629035472869873,
        1.301705241203308,
        -0.05023564398288727,
        -1.9973911046981812,
        -0.5288518667221069,
        0.9554945230484009,
        1.4896618127822876,
        0.3402060866355896,
        0.2022271454334259,
        0.4883297085762024,
        -1.9972827434539795,
        0.601168692111969,
        -1.116343379020691,
        -0.8756054639816284,
        -0.16982626914978027,
        0.9291605949401855,
        -0.7044605612754822,
        -0.12369982898235321,
        -0.3817715048789978,
        -2.03973126411438,
        2.372274160385132,
        -0.0952036902308464,
        -0.29342120885849,
        0.14800438284873962,
        0.6916181445121765,
        -0.4208299219608307,
        0.1303708702325821,
        0.14193914830684662,
        1.2239694595336914,
        1.334849238395691,
        0.5988464951515198,
        0.14587202668190002,
        1.3546881675720215,
        0.2940061092376709,
        -0.7639420628547668,
        0.5494105219841003,
        -0.05962442606687546,
        -0.878517210483551,
        -1.6747138500213623,
        -0.221787229180336,
        -0.3044836223125458,
        0.15272484719753265,
        -0.43283888697624207,
        -0.072670117020607,
        -0.478163480758667,
        -1.1825093030929565,
        -0.5625346899032593,
        -1.3731811046600342,
        2.09781551361084,
        0.21014684438705444,
        2.4159834384918213,
        0.3674256503582001,
        0.12934155762195587,
        -1.655235767364502,
        1.134567141532898,
        -0.48365435004234314,
        -0.3131769299507141,
        -1.2422001361846924,
        0.8158733248710632,
        2.5867438316345215,
        0.015826627612113953,
        1.5015629529953003,
        -0.35120606422424316,
        2.676818370819092,
        -4.396915435791016,
        -0.7807443141937256,
        0.03234387934207916,
        -0.026277700439095497,
        -1.4098848104476929,
        0.24660591781139374,
        -2.547654628753662,
        0.16207367181777954,
        0.2626301646232605,
        3.2766644954681396,
        -2.798830270767212,
        -0.16072781383991241,
        -1.3373897075653076,
        -0.9519510865211487,
        -1.1462478637695312,
        0.16335971653461456,
        0.6092249751091003,
        -0.4281085729598999,
        1.4325569868087769,
        0.19063663482666016,
        0.8550903797149658,
        -2.041438579559326,
        -0.9908698201179504,
        0.41450396180152893,
        -2.348787307739258,
        1.7381418943405151,
        0.18405592441558838,
        0.05874351039528847,
        0.0036039617843925953,
        0.5210211873054504,
        -0.5033329725265503,
        -2.9273579120635986,
        -0.03574380278587341,
        -4.522371292114258,
        1.050437331199646,
        0.2361532300710678,
        -0.137607142329216,
        -0.32665011286735535,
        -1.6744532585144043,
        -0.04883718863129616,
        -2.9502811431884766,
        -1.0329498052597046,
        0.9513430595397949,
        -0.8329262733459473,
        -0.3721829354763031,
        0.08896072953939438,
        0.22043004631996155,
        0.05913754925131798,
        1.2290560007095337,
        -0.3682231903076172,
        -1.4055277109146118,
        -2.8532676696777344,
        0.9589366316795349,
        -2.5283403396606445,
        1.3014414310455322,
        -1.6528615951538086,
        -0.34920451045036316,
        -0.4963594377040863,
        -2.3224680423736572,
        -1.821457028388977,
        -0.056635987013578415,
        2.416787624359131,
        -0.43946996331214905,
        -1.0789124965667725,
        -0.1641744077205658,
        0.1814815253019333,
        2.2500252723693848,
        -0.044250596314668655,
        -0.1614408642053604,
        -1.5995919704437256,
        -0.4738426208496094,
        0.06423629820346832,
        -0.139918252825737,
        0.9094961881637573,
        0.6519764065742493,
        0.09385889023542404,
        -0.6751407980918884,
        -1.4722763299942017,
        -1.0300798416137695,
        1.1348110437393188,
        0.09196576476097107,
        -0.7206545472145081,
        -0.6317871809005737,
        -1.7098242044448853,
        1.4204787015914917,
        0.1102285087108612,
        -0.5736414194107056,
        -0.39992237091064453,
        -0.41086670756340027,
        -0.3497150242328644,
        0.3167271018028259,
        -0.7347341179847717,
        0.5676655769348145,
        0.3299442231655121,
        -0.06070803850889206,
        -0.8229766488075256,
        -0.025375058874487877,
        -3.626946210861206,
        -0.12709693610668182,
        0.23669154942035675,
        -0.18544258177280426,
        0.8173675537109375,
        0.9793223142623901,
        2.713791608810425,
        -4.365848064422607,
        -0.7008479833602905,
        -1.7262561321258545,
        -1.6035661697387695,
        -1.9665882587432861,
        0.9631438851356506,
        1.1848230361938477,
        0.6562919020652771,
        -0.7590996026992798,
        -1.180680751800537,
        -3.94252610206604,
        1.771594524383545,
        -0.41907936334609985,
        0.4762069582939148,
        -0.135848730802536,
        -1.0444122552871704,
        -0.008463600650429726,
        0.31336328387260437,
        -0.1456126570701599,
        1.8859087228775024,
        -0.5772963166236877,
        -0.9849576950073242,
        0.2342098504304886,
        -0.7137643098831177,
        -0.28693887591362,
        -0.9928232431411743,
        -4.662726402282715,
        0.48632755875587463,
        0.21832023561000824,
        1.0535558462142944,
        0.5546531081199646,
        -1.263988971710205,
        0.20037837326526642,
        2.0186095237731934,
        2.111511707305908,
        -0.7732622623443604,
        2.2940986156463623,
        0.18638895452022552,
        -2.2681055068969727,
        -3.3328185081481934,
        -0.18886779248714447,
        -1.7524334192276,
        0.543777585029602,
        1.179452657699585,
        0.9042025804519653,
        -0.6051254272460938,
        -2.560029983520508,
        0.18991360068321228,
        -0.09868408739566803,
        -0.3564135730266571,
        0.033731479197740555,
        -1.4340064525604248,
        1.7781343460083008,
        0.7328759431838989,
        -1.2044309377670288,
        1.0217540264129639,
        0.10353318601846695,
        2.790710210800171,
        0.40216490626335144,
        -0.12904009222984314,
        -0.6225190758705139,
        0.3292368948459625,
        2.3020033836364746,
        -0.49449846148490906,
        2.613511800765991,
        0.7517616748809814,
        1.6290868520736694,
        -0.03758819401264191,
        -0.4710272550582886,
        -1.081943154335022,
        1.81607186794281,
        -0.048724208027124405,
        0.4922199845314026,
        0.48894980549812317,
        -1.0640065670013428,
        -0.008589412085711956,
        -2.696063756942749,
        2.4495887756347656,
        1.041641354560852,
        1.1801042556762695,
        -1.670514702796936,
        -0.19310937821865082,
        0.1531377136707306,
        4.688907146453857,
        1.1093039512634277,
        -0.10700249671936035,
        0.30238547921180725,
        0.7542108297348022,
        0.07466013729572296,
        -1.2273776531219482,
        -0.1556803286075592,
        -0.3800499439239502,
        0.8789165019989014,
        -0.6355432271957397,
        -1.1714885234832764,
        -0.3929392099380493,
        0.22939328849315643,
        -1.5446794033050537,
        -0.10171744972467422,
        0.6286227703094482,
        -1.0379937887191772,
        1.2404766082763672,
        -0.29537516832351685,
        -0.07379470020532608,
        -2.428574562072754,
        -0.19587808847427368,
        0.0447993129491806,
        1.6351321935653687,
        -1.5264527797698975,
        -0.4784717261791229,
        -0.9902878403663635,
        0.3273140490055084,
        -1.0412616729736328,
        0.45268410444259644,
        -1.0405220985412598,
        -1.0486713647842407,
        -2.403402805328369,
        0.18109430372714996,
        -2.213810443878174,
        -0.20749007165431976,
        0.27323833107948303,
        -0.14842361211776733,
        -2.13223934173584,
        0.44665226340293884,
        -0.3052178919315338,
        -0.5075322985649109,
        -0.7211381196975708,
        -0.5506179928779602,
        -0.33995139598846436,
        0.5450274348258972,
        -0.7281074523925781,
        -0.39012062549591064,
        -0.19910454750061035,
        0.6240121722221375,
        0.42550304532051086,
        -0.0009603483485989273,
        -0.13642968237400055,
        2.145738124847412,
        -0.1469956487417221,
        0.08135662227869034,
        -0.4049239754676819,
        -1.9274388551712036,
        0.6609504818916321,
        -0.39210495352745056,
        -0.751513659954071,
        -1.56779944896698,
        -1.7094441652297974,
        -0.5023432374000549,
        -0.21665681898593903,
        2.451565742492676,
        0.38479164242744446,
        0.7583733797073364,
        -1.3392876386642456,
        0.30710849165916443,
        0.20218271017074585,
        -2.611288070678711,
        0.2586589753627777,
        0.5449480414390564,
        0.5659676194190979,
        0.04479479789733887,
        -0.7656481862068176,
        1.3014923334121704,
        0.4035954177379608,
        -1.1317142248153687,
        0.7867403626441956,
        0.9977015256881714,
        0.2437906712293625,
        -0.04234512895345688,
        0.46942853927612305,
        0.1472988873720169,
        0.4107426404953003,
        -0.25809964537620544,
        -0.5237018465995789,
        0.17748548090457916,
        0.4769226014614105,
        0.027314232662320137,
        -2.988981246948242,
        0.06368786096572876,
        -0.20245429873466492,
        0.5789282321929932,
        0.13243095576763153,
        -0.13484187424182892,
        -0.030591139569878578,
        0.4844506084918976,
        -2.4966187477111816,
        -0.5522992610931396,
        3.0210676193237305,
        -2.509901285171509,
        -1.674605131149292,
        0.22488738596439362,
        0.38736751675605774,
        -0.5799911022186279,
        0.02654474414885044,
        -0.5086676478385925,
        0.25105348229408264,
        -0.6955313086509705,
        0.01154817920178175,
        -1.7791417837142944,
        1.4059635400772095,
        0.4610123634338379,
        -0.5680190324783325,
        -0.44103044271469116,
        0.6480318307876587,
        0.27190467715263367,
        0.15142977237701416,
        0.6975451111793518,
        0.8855761289596558,
        0.6759343147277832,
        -2.492784261703491,
        -2.5409066677093506,
        -2.5132429599761963,
        -2.9270613193511963,
        -0.116765595972538,
        0.9842145442962646,
        -0.6371455192565918,
        -1.305518627166748,
        -0.736961305141449,
        0.6940742135047913,
        0.7411485910415649,
        -0.07588347792625427,
        0.06100958585739136,
        -0.2612546980381012,
        0.023144273087382317,
        -0.495886892080307,
        -0.18121354281902313,
        -0.32470250129699707,
        -0.06483615189790726,
        -0.10091564059257507,
        -0.12242636829614639,
        -0.14597606658935547,
        0.08506598323583603,
        -0.18271121382713318,
        -0.09924980252981186,
        -0.044620148837566376,
        -0.3355172872543335,
        0.1191016361117363,
        -0.2224961519241333,
        -0.3798641860485077,
        -0.3235674202442169,
        -0.007995850406587124,
        -0.37964928150177,
        -0.04193200170993805,
        -0.1501004695892334,
        -0.37035056948661804,
        0.07092563062906265,
        -0.15533038973808289,
        -0.18414415419101715,
        -0.26586928963661194,
        -0.17812752723693848,
        -0.2662506401538849,
        0.05904117599129677,
        -0.02865099161863327,
        0.036887019872665405,
        0.07158877700567245,
        0.07800519466400146,
        -0.5873321294784546,
        -0.0889507308602333,
        0.1393202841281891,
        -0.30264487862586975,
        -0.14074471592903137,
        -0.1009705513715744,
        -0.4760678708553314,
        -0.3125595152378082,
        0.18553981184959412,
        0.1585378646850586,
        -0.21620993316173553,
        -0.2935197651386261,
        -0.41317275166511536,
        -0.255654513835907,
        -0.1920318305492401,
        0.23207563161849976,
        -0.3611288070678711,
        -0.06964155286550522,
        0.08867119252681732,
        -0.0591018870472908,
        -0.29803380370140076,
        -0.16957633197307587,
        0.09586985409259796,
        -0.332781583070755,
        0.2112264335155487,
        -0.02901647426187992,
        -0.13943344354629517,
        -0.481582909822464,
        -1.1561450958251953,
        -0.6990842819213867,
        0.4574667513370514,
        1.7873497009277344,
        -1.3688373565673828,
        0.19113542139530182,
        -0.8605862259864807,
        0.5891129970550537,
        -0.139160618185997,
        1.8395901918411255,
        0.597318172454834,
        -0.21135540306568146,
        -0.26567280292510986,
        0.1727110594511032,
        -2.4217989444732666,
        0.5590673685073853,
        0.14702670276165009,
        1.966748595237732,
        -0.5213704109191895,
        -0.8527751564979553,
        -1.2199854850769043,
        1.468925952911377,
        2.102397918701172,
        -0.05726342648267746,
        0.7152223587036133,
        -0.9597046971321106,
        0.3199819028377533,
        1.2243382930755615,
        2.176849603652954,
        0.1535809487104416,
        1.6503487825393677,
        5.368242263793945,
        1.2518126964569092,
        -0.4131903648376465,
        1.1013753414154053,
        0.4130968153476715,
        -1.3978822231292725,
        2.0024545192718506,
        -0.5982270240783691,
        3.270656108856201,
        -0.9772828221321106,
        2.5681610107421875,
        -1.6480348110198975,
        -0.8505772948265076,
        -0.9324221611022949,
        2.829909086227417,
        -0.6130497455596924,
        1.7652642726898193,
        1.0373040437698364,
        -2.580825090408325,
        1.2762980461120605,
        3.8413100242614746,
        0.16353991627693176,
        2.142206907272339,
        1.6920562982559204,
        0.5678520798683167,
        -0.27472639083862305,
        0.09867409616708755,
        2.4006032943725586,
        0.6512449979782104,
        2.0809357166290283,
        0.20261304080486298,
        1.330702304840088,
        -1.2318096160888672,
        -0.03264501318335533,
        -0.23134706914424896,
        -0.170519158244133,
        -0.008442137390375137,
        -0.22171467542648315,
        -0.12498863786458969,
        -0.3141719102859497,
        0.1882581114768982,
        -0.3905043303966522,
        -0.1327124834060669,
        -0.07226546108722687,
        -0.22589831054210663,
        -0.1326223462820053,
        -0.02409255877137184,
        -0.16892439126968384,
        -0.4491957426071167,
        0.15906362235546112,
        -0.3670118451118469,
        -0.36456674337387085,
        -0.03077959641814232,
        -0.19212082028388977,
        -0.3190881609916687,
        -0.08701510727405548,
        0.012976053170859814,
        0.01087142713367939,
        0.0016652937047183514,
        -0.241914302110672,
        -0.29827043414115906,
        0.16247741878032684,
        -0.23322546482086182,
        -0.03675061836838722,
        0.049458518624305725,
        0.0048570698127150536,
        -0.4809592366218567,
        -0.0787254348397255,
        -0.19620460271835327,
        -0.3876801133155823,
        0.03122183308005333,
        0.11935297399759293,
        5.4892625485081226e-05,
        0.0057100881822407246,
        0.08936711400747299,
        0.05481571704149246,
        -0.21202124655246735,
        -0.01667606458067894,
        -0.04496295750141144,
        -0.07662219554185867,
        -0.18393702805042267,
        0.0162834320217371,
        -0.09851650148630142,
        0.15978574752807617,
        0.0639289990067482,
        0.06017691269516945,
        -0.2558218836784363,
        -0.3137935400009155,
        0.06718330085277557,
        -0.09110110998153687,
        -0.011216733604669571,
        -0.328519344329834,
        -0.5463148355484009,
        0.15046975016593933,
        0.0847489982843399,
        -0.3291500508785248,
        -0.008502136915922165,
        -0.35199591517448425,
        0.5338950157165527,
        -0.32446402311325073,
        -0.6889339685440063,
        -0.629561722278595,
        0.027698075398802757,
        0.9662070274353027,
        0.9296270608901978,
        0.46734216809272766,
        -2.5601789951324463,
        0.5877808928489685,
        -2.3080804347991943,
        -0.18116669356822968,
        0.31313976645469666,
        0.014357457868754864,
        2.336364269256592,
        1.7854171991348267,
        -0.9289232492446899,
        0.24336867034435272,
        -1.081878423690796,
        0.0297007504850626,
        0.8683662414550781,
        -1.7812669277191162,
        -2.8933749198913574,
        -1.1094392538070679,
        -0.6720476150512695,
        -1.9193992614746094,
        0.047113124281167984,
        -0.6596508026123047,
        -0.4632568657398224,
        -3.7452218532562256,
        -0.6456387639045715,
        0.42292967438697815,
        -0.19396698474884033,
        -1.6158684492111206,
        -1.1312036514282227,
        0.16881699860095978,
        -0.07845214754343033,
        0.29927733540534973,
        -2.2298214435577393,
        0.8851335048675537,
        0.5105150938034058,
        0.5313564538955688,
        0.15886260569095612,
        0.34038835763931274,
        -2.8792662620544434,
        -1.8929283618927002,
        -1.1792619228363037,
        1.1926400661468506,
        -0.5133753418922424,
        -1.2112867832183838,
        -3.0179357528686523,
        0.7468562126159668,
        -3.7408554553985596,
        -1.9311600923538208,
        0.04305063560605049,
        1.0301706790924072,
        0.034534599632024765,
        2.1120479106903076,
        0.6390097141265869,
        0.31631970405578613,
        -3.2653541564941406,
        -2.6021363735198975,
        -0.4097977578639984,
        -0.62123703956604,
        0.5206352472305298,
        -1.6177897453308105,
        -0.5728346109390259,
        -0.6544695496559143,
        0.7033865451812744,
        0.7034097909927368,
        0.37707215547561646,
        -0.13333982229232788,
        -0.1444317102432251,
        -0.7146618366241455,
        -0.5019664168357849,
        -0.38938599824905396,
        0.05146539583802223,
        0.2690957188606262,
        -5.000412464141846,
        1.247959852218628,
        -1.1565368175506592,
        0.7691180109977722,
        0.49466633796691895,
        -0.3600120544433594,
        1.0548279285430908,
        0.6322131156921387,
        -0.03828836604952812,
        0.38803836703300476,
        -0.8461964726448059,
        0.6052841544151306,
        0.6105637550354004,
        -1.2705366611480713,
        -0.7586265206336975,
        2.925961971282959,
        -0.726385772228241,
        0.31169673800468445,
        -0.1381424069404602,
        -0.7060683965682983,
        -1.079913854598999,
        0.7894148826599121,
        3.919395685195923,
        0.1451025903224945,
        -3.318419933319092,
        0.9164467453956604,
        -1.1827954053878784,
        0.8065029978752136,
        0.22872373461723328,
        -0.2784421741962433,
        -2.878990888595581,
        2.150852918624878,
        0.33282971382141113,
        2.257417917251587,
        -2.0838711261749268,
        -0.8019875884056091,
        -1.9023314714431763,
        -1.0079576969146729,
        0.10482081025838852,
        0.2742047905921936,
        0.5156868696212769,
        -0.3449155390262604,
        0.16721133887767792,
        2.692519426345825,
        -0.620934247970581,
        2.0775604248046875,
        0.6129505038261414,
        -0.16377390921115875,
        -3.249490261077881,
        -0.8517670631408691,
        -0.6060937643051147,
        -0.9115733504295349,
        -1.0057377815246582,
        0.21984224021434784,
        1.298302412033081,
        1.2426024675369263,
        0.03964579477906227,
        -1.610921025276184,
        0.9617632627487183,
        -0.030293120071291924,
        -3.337512731552124,
        -0.5741879940032959,
        -1.1924351453781128,
        -0.6845848560333252,
        -4.111432075500488,
        0.8601133823394775,
        -1.1653344631195068,
        0.27205583453178406,
        0.19030557572841644,
        -1.5785117149353027,
        0.18871694803237915,
        -3.1690480709075928,
        0.21597464382648468,
        -2.5314364433288574,
        -0.1525486558675766,
        0.23065674304962158,
        -2.4090538024902344,
        0.906889796257019,
        -0.31651681661605835,
        -0.7487831115722656,
        -0.8405987620353699,
        0.6141260266304016,
        -1.2855876684188843,
        1.180640459060669,
        0.39477598667144775,
        0.8307788968086243,
        -1.8837532997131348,
        -1.2683066129684448,
        -1.8866865634918213,
        1.382544755935669,
        -0.5637807250022888,
        0.569399356842041,
        0.12390802800655365,
        -2.4674997329711914,
        -0.29284554719924927,
        1.8241584300994873,
        0.33204758167266846,
        0.7389050126075745,
        -4.149869918823242,
        0.28951165080070496,
        0.346320241689682,
        -0.06927706301212311,
        0.00311707123182714,
        0.7895850539207458,
        -0.4531169533729553,
        -3.030606269836426,
        -0.29497095942497253,
        -0.04221007972955704,
        -2.4225213527679443,
        -0.016551189124584198,
        1.6479846239089966,
        -0.2005186676979065,
        -0.8537362217903137,
        2.5313353538513184,
        -6.118655204772949,
        0.7886792421340942,
        2.4288766384124756,
        -0.3219735324382782,
        2.1841061115264893,
        -0.27939215302467346,
        0.07849645614624023,
        -0.03427514806389809,
        -0.13593880832195282,
        0.18928813934326172,
        -7.889272689819336,
        -1.076409935951233,
        -0.21514549851417542,
        0.49258407950401306,
        -2.464942216873169,
        0.5095772743225098,
        1.413326382637024,
        0.04944334551692009,
        -2.2685091495513916,
        -0.2921859323978424,
        1.4065916538238525,
        -1.4642324447631836,
        1.2951198816299438,
        -0.8383473753929138,
        1.7718976736068726,
        -0.6662487387657166,
        -0.08758257329463959,
        1.4655919075012207,
        2.218449115753174,
        1.6675803661346436,
        -0.9229363799095154,
        -3.13971209526062,
        -0.42318305373191833,
        2.0862932205200195,
        -2.1648261547088623,
        0.3955421447753906,
        -0.6068651080131531,
        0.18688362836837769,
        2.5075225830078125,
        -2.5621914863586426,
        -2.1364784240722656,
        -1.704514741897583,
        -2.6338484287261963,
        -0.18922169506549835,
        4.221915245056152,
        -0.8283940553665161,
        4.943027973175049,
        -0.046195536851882935,
        -0.6544733643531799,
        -1.5214728116989136,
        -0.5093344449996948,
        1.88404381275177,
        -3.48826265335083,
        -2.31972599029541,
        0.48499172925949097,
        -1.4719430208206177,
        -0.031310372054576874,
        0.47155579924583435,
        0.006193725857883692,
        -1.118252158164978,
        2.1119143962860107,
        0.4054170548915863,
        0.27550703287124634,
        -1.7128132581710815,
        -1.6906445026397705,
        0.5257233381271362,
        -3.132758140563965,
        -1.5251051187515259,
        -0.7082273364067078,
        0.28501322865486145,
        0.9678201079368591,
        0.0634881928563118,
        -0.8465268015861511,
        -1.2550151348114014,
        -0.3590383231639862,
        -0.22921210527420044,
        -1.4667876958847046,
        2.2366318702697754,
        -0.2466292828321457,
        -0.5065122842788696,
        -2.7596638202667236,
        0.27490249276161194,
        -0.5177781581878662,
        0.06505730748176575,
        -0.3333159387111664,
        -0.037381645292043686,
        2.276256799697876,
        -0.12069886922836304,
        1.1960291862487793,
        0.9311607480049133,
        -0.11357704550027847,
        -3.949068784713745,
        -0.7475430369377136,
        0.42421483993530273,
        1.1003773212432861,
        -2.7942097187042236,
        0.01645977795124054,
        0.7491047382354736,
        -1.519568920135498,
        0.13999050855636597,
        -2.52241849899292,
        0.2461877018213272,
        0.1083696037530899,
        -0.6804282069206238,
        0.1616974025964737,
        0.2581714689731598,
        -1.0623128414154053,
        -1.7880104780197144,
        -7.646512031555176,
        -1.970831274986267,
        0.4014679491519928,
        -0.5242586135864258,
        0.8809121251106262,
        -2.4102814197540283,
        -0.4369128346443176,
        0.05636332929134369,
        -0.19178658723831177,
        -2.0142135620117188,
        0.05546954274177551,
        -1.765907645225525,
        0.053668830543756485,
        2.3500945568084717,
        0.10047811269760132,
        -1.6471011638641357,
        0.10160096734762192,
        -2.1578922271728516,
        0.4763297736644745,
        0.5262541174888611,
        0.024389568716287613,
        -1.4225503206253052,
        0.3888665437698364,
        0.7429882287979126,
        0.428743451833725,
        -0.29840087890625,
        -1.766082763671875,
        0.5259247422218323,
        -0.9982828497886658,
        1.039320945739746,
        0.1281796097755432,
        1.2651121616363525,
        -1.0642670392990112,
        0.23050466179847717,
        0.47713178396224976,
        -2.830280065536499,
        1.3913472890853882,
        -0.1665065735578537,
        0.21817342936992645,
        -0.6441637873649597,
        0.2985054552555084,
        -4.69774866104126,
        0.05526939406991005,
        0.28671008348464966,
        0.955809473991394,
        -0.2742323875427246,
        1.0127002000808716,
        0.09347406774759293,
        -0.026595324277877808,
        -2.0762386322021484,
        -0.33007967472076416,
        -0.4959264099597931,
        1.3402684926986694,
        0.42788124084472656,
        -4.498280048370361,
        -0.23149850964546204,
        -4.588130474090576,
        0.3508765399456024,
        -1.875707745552063,
        -0.0821295902132988,
        -0.5820797681808472,
        -1.7999340295791626,
        -1.1578664779663086,
        1.1038156747817993,
        0.08904263377189636,
        -2.6941757202148438,
        -2.476909637451172,
        0.9141879677772522,
        0.6295619010925293,
        -2.554938554763794,
        0.21668031811714172,
        -0.15166085958480835,
        1.555677056312561,
        -0.49896129965782166,
        1.3558053970336914,
        0.27117979526519775,
        -0.3435160517692566,
        -4.235844612121582,
        -2.6994338035583496,
        -2.1378793716430664,
        0.6858954429626465,
        -2.2082180976867676,
        -0.286073237657547,
        -0.037319932132959366,
        -0.24549154937267303,
        -0.010560673661530018,
        -0.13214503228664398,
        -0.11520157754421234,
        -0.06056696176528931,
        -0.12443213909864426,
        -0.0006074600387364626,
        -0.09989090263843536,
        -0.0952511578798294,
        -0.19069834053516388,
        -0.22707252204418182,
        -0.23683597147464752,
        -0.18191033601760864,
        -0.05378152057528496,
        -0.029206447303295135,
        -0.2526414692401886,
        0.07333529740571976,
        -0.2352719008922577,
        0.14838609099388123,
        -0.24494880437850952,
        -0.13704383373260498,
        -0.11044342815876007,
        -0.12935209274291992,
        -0.06607360392808914,
        -0.18169543147087097,
        -0.12779763340950012,
        -0.1912044882774353,
        -0.24734291434288025,
        -0.31344693899154663,
        0.10429795831441879,
        0.1917935460805893,
        0.008400382474064827,
        -0.29437875747680664,
        0.0339849516749382,
        -0.07310663908720016,
        0.08732739090919495,
        -0.24278655648231506,
        0.12873807549476624,
        0.011908505111932755,
        -0.2001415640115738,
        -0.2294701337814331,
        0.09830640256404877,
        0.06461712718009949,
        0.0075247944332659245,
        -0.169172003865242,
        -0.08919050544500351,
        -0.24145713448524475,
        -0.13943549990653992,
        -0.2149728536605835,
        -0.20373818278312683,
        -0.2631000578403473,
        -0.153535395860672,
        -0.11353498697280884,
        -0.060251813381910324,
        0.11783519387245178,
        -0.10001104325056076,
        -0.00019560937653295696,
        0.040047165006399155,
        0.07744938880205154,
        0.03335457667708397,
        0.06947959214448929,
        0.06480895727872849,
        0.03741923347115517,
        -0.3410169184207916,
        0.2324780821800232,
        -0.07739932090044022,
        0.727665901184082,
        0.6585289835929871,
        0.13162484765052795,
        -5.4497857093811035,
        -2.2109527587890625,
        0.802170991897583,
        -1.0914255380630493,
        0.8172842264175415,
        -0.2156660556793213,
        0.801300048828125,
        0.30491936206817627,
        0.0398821160197258,
        0.7253586053848267,
        -0.988406777381897,
        -0.17718423902988434,
        -0.581624448299408,
        -0.19589269161224365,
        -0.027060486376285553,
        0.7549916505813599,
        0.4862055778503418,
        0.455901175737381,
        -0.6200350522994995,
        -1.7671940326690674,
        0.3678821325302124,
        -0.8802367448806763,
        1.403050184249878,
        0.9950096011161804,
        -1.2586442232131958,
        -1.5043867826461792,
        -0.08147144317626953,
        0.5856364965438843,
        0.19695357978343964,
        0.9205403327941895,
        -6.3413987159729,
        2.4250264167785645,
        1.19735586643219,
        -0.48345106840133667,
        0.5552567839622498,
        -0.8787691593170166,
        -0.8975720405578613,
        -0.7513747215270996,
        0.016347089782357216,
        0.2830770015716553,
        -0.6019036173820496,
        -2.343672275543213,
        -1.0901440382003784,
        0.430204838514328,
        0.92344069480896,
        1.3380458354949951,
        -0.598499059677124,
        0.4790911078453064,
        -0.07291309535503387,
        0.41943591833114624,
        -1.8703844547271729,
        -2.833806276321411,
        -0.11350826919078827,
        -0.47515079379081726,
        -0.10822424292564392,
        0.07367072999477386,
        -0.594997227191925,
        1.6941208839416504,
        -0.4039996564388275,
        -0.7228069305419922,
        -0.49138444662094116,
        -0.09788479655981064,
        0.023494523018598557,
        0.3275459408760071,
        0.7656253576278687,
        -2.071741819381714,
        0.26740723848342896,
        -1.0097440481185913,
        2.058896541595459,
        -0.4923597574234009,
        -0.2547234296798706,
        0.31637710332870483,
        0.053287357091903687,
        1.3880661725997925,
        -1.407287359237671,
        0.11178430169820786,
        0.8120840787887573,
        -0.33658260107040405,
        0.07305973023176193,
        0.6953648328781128,
        -0.8083875775337219,
        0.5598819255828857,
        -0.2532808780670166,
        -0.5388250946998596,
        0.6554607152938843,
        0.6494678258895874,
        -1.2789802551269531,
        0.01402999833226204,
        -1.8498514890670776,
        -1.6041393280029297,
        0.26265615224838257,
        0.42498111724853516,
        -0.6313597559928894,
        1.1729604005813599,
        1.0236867666244507,
        -2.9485180377960205,
        -0.15548641979694366,
        -0.3238750696182251,
        0.020317966118454933,
        -2.13260817527771,
        -0.8528150320053101,
        -0.5816747546195984,
        0.29427143931388855,
        0.49270138144493103,
        -0.8923422694206238,
        -1.494602918624878,
        0.6322700381278992,
        -0.16091443598270416,
        1.3766595125198364,
        0.9415119886398315,
        -1.6368497610092163,
        0.5531808137893677,
        0.015113231725990772,
        0.24405121803283691,
        -0.1075717955827713,
        -2.7905688285827637,
        0.26507100462913513,
        -0.8587161898612976,
        -0.6016951203346252,
        0.3884456753730774,
        -1.134013056755066,
        -7.297515869140625,
        -0.43059203028678894,
        -1.1002672910690308,
        0.1692495346069336,
        -1.5300405025482178,
        -0.669303297996521,
        0.27243971824645996,
        -1.4395160675048828,
        -0.07752610743045807,
        0.04744606092572212,
        1.719135046005249,
        -1.612795114517212,
        0.6955007314682007,
        -0.16587573289871216,
        0.5083661675453186,
        -1.4454424381256104,
        0.25995638966560364,
        1.524119257926941,
        0.10157893598079681,
        -1.5601332187652588,
        0.181235671043396,
        -0.6423946022987366,
        -0.38932371139526367,
        0.8505770564079285,
        0.1735844612121582,
        -0.2387211173772812,
        -0.2922360599040985,
        0.3808237314224243,
        -1.025614857673645,
        -2.5367112159729004,
        1.0036811828613281,
        -0.039051517844200134,
        0.8760457038879395,
        0.7702057957649231,
        -0.5109853744506836,
        0.5939897894859314,
        0.6403613090515137,
        -1.7304538488388062,
        -1.7542997598648071,
        0.42527857422828674,
        -0.2198542058467865,
        -0.7451770305633545,
        0.1653638333082199,
        1.0773100852966309,
        -0.547600269317627,
        -0.6998340487480164,
        0.2685396671295166,
        2.200859546661377,
        0.62112957239151,
        -3.948354482650757,
        0.5005952715873718,
        -0.2801007032394409,
        0.8225830793380737,
        -0.23591363430023193,
        -0.5953882932662964,
        0.9861315488815308,
        -0.523007869720459,
        -0.6274173855781555,
        -0.4006939232349396,
        2.6354453563690186,
        -0.29159849882125854,
        2.803744077682495,
        0.23122842609882355,
        0.1784489005804062,
        2.0410680770874023,
        -0.2258446365594864,
        0.37284424901008606,
        1.2419713735580444,
        0.7923027873039246,
        -0.3616761863231659,
        0.3640933632850647,
        -0.4791029095649719,
        -0.03989344835281372,
        -0.00541290920227766,
        1.0817198753356934,
        0.47239208221435547,
        -0.871879518032074,
        -0.3659045398235321,
        0.12039774656295776,
        -0.21496225893497467,
        0.18947544693946838,
        -0.37049025297164917,
        -0.1797959953546524,
        -0.9595600366592407,
        0.3551267683506012,
        -0.15049630403518677,
        0.4383690655231476,
        -0.1481998711824417,
        -0.19271133840084076,
        -0.23285433650016785,
        -0.6008212566375732,
        0.23610563576221466,
        -0.023068640381097794,
        0.8904484510421753,
        0.8329598903656006,
        0.5089213848114014,
        0.41409987211227417,
        0.8385289907455444,
        0.04898671433329582,
        -0.02867729216814041,
        -0.9424054026603699,
        -0.9824633598327637,
        1.2365952730178833,
        0.5266074538230896,
        1.9107792377471924,
        -0.2493959665298462,
        0.72434401512146,
        -0.39758557081222534,
        -1.0877346992492676,
        0.38645410537719727,
        0.8648186326026917,
        0.026199378073215485,
        0.6014834046363831,
        -1.781809687614441,
        -1.2039510011672974,
        -0.825542151927948,
        2.4454095363616943,
        0.4218794107437134,
        1.2356752157211304,
        0.7804453372955322,
        0.5650477409362793,
        0.03253285586833954,
        -0.5518819093704224,
        0.14149786531925201,
        0.7128428220748901,
        0.6996888518333435,
        0.7497652173042297,
        -0.12441369146108627,
        -0.2682548463344574,
        -1.0883204936981201,
        0.05665947124361992,
        0.48080384731292725,
        2.5075037479400635,
        -1.4497157335281372,
        1.0251553058624268,
        0.9678609371185303,
        0.25163936614990234,
        0.9162213802337646,
        0.6064361333847046,
        1.148396611213684,
        0.20228485763072968,
        -0.26739591360092163,
        2.41300892829895,
        1.979026436805725,
        1.0518419742584229,
        1.7031491994857788,
        0.8815559148788452,
        2.0927786827087402,
        -0.42093589901924133,
        0.06754007935523987,
        -0.2423820048570633,
        2.3560233116149902,
        0.8917895555496216,
        0.24423813819885254,
        0.0014495633076876402,
        0.9921460151672363,
        -0.11673892289400101,
        2.0633091926574707,
        -0.6824132800102234,
        0.38453543186187744,
        -0.8757006525993347,
        -2.2000603675842285,
        1.0463814735412598,
        1.6938730478286743,
        -1.1335294246673584,
        0.3430032432079315,
        0.8122044801712036,
        -0.015332519076764584,
        0.9599475860595703,
        -2.0571298599243164,
        0.40097442269325256,
        0.0768105685710907,
        -2.8790719509124756,
        0.11131791025400162,
        -1.2095667123794556,
        1.760316014289856,
        -1.2823410034179688,
        0.4816761910915375,
        0.9700184464454651,
        -0.6350818276405334,
        0.02231650799512863,
        -1.9231531620025635,
        0.6689389944076538,
        -1.9024051427841187,
        0.24386680126190186,
        -0.3975062668323517,
        0.15978580713272095,
        3.0563766956329346,
        0.3374398350715637,
        1.0066357851028442,
        0.9591535329818726,
        0.2764318883419037,
        -0.4248126149177551,
        0.6692448258399963,
        -0.5469965934753418,
        1.3892134428024292,
        0.41876500844955444,
        -0.174822598695755,
        0.22095422446727753,
        0.9218159914016724,
        -4.898782253265381,
        -0.7451298236846924,
        -0.14547790586948395,
        0.014026535674929619,
        -5.471287250518799,
        1.995383381843567,
        0.1924773007631302,
        -2.4581451416015625,
        -0.1740986555814743,
        0.043192267417907715,
        0.23266422748565674,
        -0.9227384924888611,
        0.5632920861244202,
        -0.2581677734851837,
        0.7181636095046997,
        -0.0838770642876625,
        0.7619847059249878,
        -0.9406371712684631,
        -0.04071030020713806,
        -0.16618551313877106,
        0.3386310338973999,
        -0.09783782809972763,
        0.47207507491111755,
        -0.25259095430374146,
        -0.10520637780427933,
        -0.4536185562610626,
        -1.1249397993087769,
        -0.47370418906211853,
        2.204441785812378,
        -1.4443507194519043,
        -0.41280192136764526,
        -0.8684834837913513,
        2.482090473175049,
        0.40652939677238464,
        0.06583839654922485,
        -0.20475825667381287,
        2.0283560752868652,
        -0.39227986335754395,
        1.7591931819915771,
        -0.25513213872909546,
        0.6136353015899658,
        -1.4423446655273438,
        -2.216646671295166,
        3.5823676586151123,
        0.9174465537071228,
        1.1642272472381592,
        1.539652705192566,
        -0.5744739174842834,
        0.21635910868644714,
        -1.3374335765838623,
        -0.36006349325180054,
        -0.08582842350006104,
        -0.3100787103176117,
        -0.3180522620677948,
        0.4102153480052948,
        0.5111618638038635,
        -0.32999661564826965,
        -5.619978904724121,
        0.07466235756874084,
        0.3660043478012085,
        2.862133502960205,
        -0.5441256165504456,
        -0.03251603618264198,
        -0.2270236313343048,
        1.9980757236480713,
        -0.16425800323486328,
        -0.9495249390602112,
        0.12999434769153595,
        -7.255096912384033,
        -0.4821661114692688,
        0.11911004781723022,
        -1.9090591669082642,
        -0.4577775299549103,
        -1.0901269912719727,
        -1.8705389499664307,
        -0.06157143414020538,
        -5.608757972717285,
        -0.191859170794487,
        0.44899019598960876,
        0.052968818694353104,
        -0.6918783783912659,
        1.9218816757202148,
        -0.9419416189193726,
        -0.9837250709533691,
        1.049789547920227,
        1.7049026489257812,
        0.1499803364276886,
        -0.3836494982242584,
        0.07852815091609955,
        0.011635213159024715,
        -0.435935914516449,
        1.1446419954299927,
        0.6583822965621948,
        0.1472577154636383,
        0.9660101532936096,
        0.37264779210090637,
        0.34932076930999756,
        0.13169535994529724,
        0.717909574508667,
        -0.03953643515706062,
        0.09316597878932953,
        -4.271484375,
        -1.3401885032653809,
        -0.9826808571815491,
        -1.107308030128479,
        -0.3246220648288727,
        -1.3533800840377808,
        1.508673906326294,
        -0.33847737312316895,
        -0.027228636667132378,
        0.4413984715938568,
        0.19841112196445465,
        0.15910932421684265,
        3.237004518508911,
        -0.08696547895669937,
        0.7561454176902771,
        1.0089037418365479,
        -0.6350057721138,
        -0.3757829964160919,
        0.8785759806632996,
        0.9615611433982849,
        -1.3658196926116943,
        0.3362368941307068,
        0.762110710144043,
        -3.2429165840148926,
        -0.8906623721122742,
        -1.0558775663375854,
        -0.1438266932964325,
        0.05325916036963463,
        -0.5836683511734009,
        2.2228381633758545,
        -1.5737234354019165,
        -0.1812310367822647,
        -0.1598711460828781,
        -0.9390329718589783,
        -0.2445370852947235,
        -0.502605140209198,
        -2.6043362617492676,
        -0.1330629140138626,
        -0.25482290983200073,
        0.05041617155075073,
        -0.7903823256492615,
        -0.44102850556373596,
        -1.6124049425125122,
        1.2490557432174683,
        -0.08053982257843018,
        -1.3929649591445923,
        0.7929192781448364,
        0.7336649894714355,
        -0.7745757699012756,
        -3.553356647491455,
        -0.937198281288147,
        3.741793394088745,
        1.1584465503692627,
        0.044259779155254364,
        -1.0614423751831055,
        -1.175565242767334,
        0.16007141768932343,
        0.4140411913394928,
        0.3175312876701355,
        -1.0961625576019287,
        0.8917396664619446,
        0.06533388793468475,
        -1.2711249589920044,
        -0.13323438167572021,
        -2.234548568725586,
        -1.13480806350708,
        -2.324493646621704,
        -1.0983319282531738,
        0.31361123919487,
        0.5415472984313965,
        -0.1439845710992813,
        -0.7750805616378784,
        0.49547258019447327,
        -0.28240421414375305,
        1.3841941356658936,
        0.10329797863960266,
        0.9464264512062073,
        0.31983184814453125,
        0.21567873656749725,
        -3.255824089050293,
        -1.7771012783050537,
        -0.9173111319541931,
        -0.8502482771873474,
        -0.3275896906852722,
        0.9368143081665039,
        -0.8921797275543213,
        -0.018396947532892227,
        0.11160594969987869,
        -0.3089398145675659,
        -1.827308177947998,
        1.3129189014434814,
        1.3315634727478027,
        -2.2965152263641357,
        1.640915870666504,
        0.19547565281391144,
        0.29676875472068787,
        0.014734018594026566,
        0.2706967294216156,
        -0.08815334737300873,
        0.5321090221405029,
        0.9600313901901245,
        -0.10144216567277908,
        -0.3398398160934448,
        0.6188794374465942,
        0.012029414065182209,
        1.295143485069275,
        0.81134033203125,
        -0.6011123657226562,
        0.41105934977531433,
        0.9220479130744934,
        0.4233965575695038,
        0.5090789794921875,
        -0.6969063878059387,
        -0.6505618691444397,
        0.4744231104850769,
        2.032514810562134,
        -2.5487284660339355,
        -2.707183837890625,
        -0.015253820456564426,
        -0.19134335219860077,
        -1.0135118961334229,
        1.0260701179504395,
        0.7365787625312805,
        0.2670288383960724,
        0.2207985371351242,
        0.40527641773223877,
        -0.5027008056640625,
        -0.33001062273979187,
        -0.49550995230674744,
        -0.5206097364425659,
        0.058328766375780106,
        0.8310474157333374,
        -0.06708266586065292,
        0.3210567533969879,
        0.17029936611652374,
        -0.536435604095459,
        -0.7091649174690247,
        -2.4526071548461914,
        -3.1009294986724854,
        -0.2978796064853668,
        -1.3750306367874146,
        -0.613182544708252,
        1.538374423980713,
        -0.21001338958740234,
        -0.09657375514507294,
        -2.586758613586426,
        0.8689032793045044,
        -0.006487487815320492,
        -0.14645980298519135,
        -2.727034568786621,
        0.6260417103767395,
        1.1459407806396484,
        -0.47606635093688965,
        -0.6308408975601196,
        0.40496569871902466,
        0.6328939199447632,
        0.4029948115348816,
        -3.982301712036133,
        -1.824437141418457,
        0.06432464718818665,
        1.3168773651123047,
        -0.021295594051480293,
        0.09866737574338913,
        0.3830617070198059,
        0.8538678884506226,
        -0.38438206911087036,
        0.17310866713523865,
        -9.237896919250488,
        -1.9032810926437378,
        -1.6192015409469604,
        1.827671766281128,
        -0.8426678776741028,
        0.4654451012611389,
        -2.3571763038635254,
        0.17707647383213043,
        0.603701651096344,
        0.5809419751167297,
        1.1431161165237427,
        1.126799464225769,
        0.24224503338336945,
        -0.4506891369819641,
        -0.38322627544403076,
        -0.4335073232650757,
        -0.37684595584869385,
        1.2868367433547974,
        -0.6657103896141052,
        -1.61842679977417,
        1.0460851192474365,
        -0.5144783854484558,
        0.03471570089459419,
        0.807997465133667,
        2.816694736480713,
        -0.18145586550235748,
        2.1837666034698486,
        0.8317093253135681,
        -1.7151856422424316,
        -1.7296488285064697,
        0.08018670976161957,
        0.10256478935480118,
        -0.2768860459327698,
        1.7480897903442383,
        -0.035555098205804825,
        -0.7707574367523193,
        -0.3035983443260193,
        0.07391023635864258,
        -0.38584786653518677,
        -2.950052261352539,
        -0.21096421778202057,
        0.5665420889854431,
        -0.8663073182106018,
        0.602415144443512,
        -0.8427186012268066,
        -0.3392890393733978,
        0.7775111198425293,
        0.26485803723335266,
        -0.7948027849197388,
        -0.4229806661605835,
        -0.529385507106781,
        -0.057512715458869934,
        1.099429726600647,
        -0.20807474851608276,
        0.8057155013084412,
        1.6984007358551025,
        0.36676645278930664,
        0.4351436197757721,
        0.2976609170436859,
        0.08349695056676865,
        0.024892304092645645,
        0.9252392053604126,
        -0.03528725355863571,
        0.07321429997682571,
        0.3592422902584076,
        0.02693827822804451,
        -1.2919822931289673,
        0.3960123360157013,
        -0.5322418808937073,
        0.5467439293861389,
        0.11721246689558029,
        -1.214186429977417,
        -0.09288358688354492,
        -0.30118829011917114,
        1.905940055847168,
        0.1907489001750946,
        1.601352572441101,
        0.01748482510447502,
        -1.5290517807006836,
        -0.44218793511390686,
        -0.1242828220129013,
        -0.783266007900238,
        0.5546277165412903,
        -0.4396965801715851,
        0.46134936809539795,
        -0.19861489534378052,
        -0.11005717515945435,
        0.2745736837387085,
        0.518524169921875,
        -0.5667083263397217,
        -2.030181884765625,
        -0.47176724672317505,
        1.0873486995697021,
        0.13895083963871002,
        0.12079978734254837,
        -0.006213775835931301,
        -0.5800973773002625,
        0.8528649210929871,
        -2.647055149078369,
        -1.2017548084259033,
        0.27072665095329285,
        -1.3761718273162842,
        -0.07861698418855667,
        0.4112394452095032,
        -0.19886450469493866,
        -1.175167202949524,
        -0.15357041358947754,
        -0.06114935502409935,
        -0.6160439252853394,
        -0.3492422103881836,
        -0.1833566427230835,
        0.378231942653656,
        -1.969557762145996,
        0.4768487811088562,
        1.207642674446106,
        -0.9293627142906189,
        -0.1988203525543213,
        -2.150178909301758,
        -1.0001366138458252,
        -3.5016019344329834,
        0.6655118465423584,
        -1.1743171215057373,
        -2.0312530994415283,
        -0.018405020236968994,
        0.6957093477249146,
        0.8204780220985413,
        -2.1899688243865967,
        -2.2601587772369385,
        0.4093940854072571,
        -1.9075102806091309,
        0.22985920310020447,
        -0.22709700465202332,
        0.6441752910614014,
        -0.37595880031585693,
        -1.6786922216415405,
        0.8144235014915466,
        -0.5064870715141296,
        -0.3480377793312073,
        0.2987666726112366,
        -1.5043132305145264,
        -1.471268892288208,
        0.8064446449279785,
        -2.4175398349761963,
        0.6203776597976685,
        0.9256782531738281,
        -0.32363617420196533,
        -0.48023027181625366,
        -2.2970387935638428,
        -0.31915581226348877,
        0.7808641791343689,
        0.07480351626873016,
        1.5955332517623901,
        1.9178904294967651,
        -3.5046491622924805,
        0.7010178565979004,
        -0.11722226440906525,
        -0.5801026821136475,
        1.5591129064559937,
        -1.1650265455245972,
        2.3017609119415283,
        -0.04134569689631462,
        1.0412102937698364,
        -1.3266340494155884,
        1.2783334255218506,
        0.2892911732196808,
        0.2207016944885254,
        -0.0466822050511837,
        -2.2143728733062744,
        -0.5466117262840271,
        -0.7842766642570496,
        0.7467238903045654,
        -0.5752453804016113,
        0.3827962577342987,
        -1.7421573400497437,
        -1.0562094449996948,
        -0.8206159472465515,
        -3.5035884380340576,
        -1.887400507926941,
        -0.028558362275362015,
        -0.015742214396595955,
        0.6835563778877258,
        -0.7491329908370972,
        -0.32578542828559875,
        -0.4679138958454132,
        -1.9519174098968506,
        0.757294774055481,
        -1.426215410232544,
        -0.20822417736053467,
        1.0368250608444214,
        -1.7888175249099731,
        5.113182067871094,
        0.2657005488872528,
        -0.9326730370521545,
        0.5218471884727478,
        -0.9131054282188416,
        -0.6619884967803955,
        -0.2545669972896576,
        -0.381246417760849,
        -2.1571574211120605,
        -0.11049721390008926,
        1.9462789297103882,
        -3.5087554454803467,
        1.0579099655151367,
        -0.9130188226699829,
        -4.1046576499938965,
        0.826706051826477,
        -0.8892201781272888,
        1.301730751991272,
        0.5608773827552795,
        0.6071450114250183,
        -0.9116556644439697,
        -0.1500898003578186,
        -0.0748901218175888,
        -0.8502347469329834,
        0.6577590703964233,
        0.05918116122484207,
        1.4416923522949219,
        -0.6969491839408875,
        1.6957156658172607,
        -2.917076349258423,
        -1.998193621635437,
        -0.1469472348690033,
        -0.4863841235637665,
        -0.3926392197608948,
        0.05033377557992935,
        -1.0484018325805664,
        0.024910468608140945,
        0.9734058380126953,
        -0.26978668570518494,
        1.964213490486145,
        -0.04424763470888138,
        0.004535493440926075,
        -0.37233468890190125,
        -4.679680824279785,
        -0.032803699374198914,
        0.4573766887187958,
        -2.020226001739502,
        -1.8655424118041992,
        -1.0502350330352783,
        -0.1771237850189209,
        -0.3926464319229126,
        -1.79775869846344,
        0.12335997074842453,
        0.8081219792366028,
        0.38506001234054565,
        -0.19739273190498352,
        -0.8598129749298096,
        0.35652193427085876,
        -2.792844533920288,
        0.6938253045082092,
        0.3113052546977997,
        -1.8109163045883179,
        0.9328846335411072,
        2.122809648513794,
        2.6167004108428955,
        -0.2078346163034439,
        -3.8774466514587402,
        -0.005147088319063187,
        0.07904864102602005,
        1.1440951824188232,
        0.1294919103384018,
        0.9094550013542175,
        1.2191674709320068,
        0.32652562856674194,
        1.6911813020706177,
        -0.7241630554199219,
        -0.8599091172218323,
        1.4779378175735474,
        -0.9176238179206848,
        0.7635238766670227,
        -0.6045400500297546,
        0.8130700588226318,
        1.6751291751861572,
        0.3580096364021301,
        0.45721620321273804,
        -0.1639656275510788,
        -0.45850619673728943,
        -1.7848968505859375,
        0.6809813976287842,
        0.20988284051418304,
        1.7097806930541992,
        -1.8993349075317383,
        -0.7700262665748596,
        0.4750175178050995,
        -1.3148759603500366,
        -0.16116993129253387,
        -1.4416674375534058,
        1.3693764209747314,
        0.7795260548591614,
        -1.546114444732666,
        -2.082534074783325,
        0.2497585117816925,
        -0.7671353816986084,
        1.2016785144805908,
        0.3473277688026428,
        -0.6906406283378601,
        1.9584596157073975,
        1.3294886350631714,
        0.46335503458976746,
        0.7816848158836365,
        -2.6329634189605713,
        0.1117846891283989,
        -0.1509299874305725,
        -1.3741979598999023,
        0.5197784304618835,
        -0.16848263144493103,
        -0.42689433693885803,
        1.3697935342788696,
        0.6794678568840027,
        -1.5468157529830933,
        2.0750133991241455,
        0.6205725073814392,
        0.004939628764986992,
        1.3612385988235474,
        1.099758267402649,
        -0.9070737957954407,
        -0.710328221321106,
        -0.22455598413944244,
        0.8562432527542114,
        0.41302162408828735,
        -0.1499335914850235,
        0.1628989428281784,
        1.122521996498108,
        1.3677884340286255,
        0.290393203496933,
        0.753179669380188,
        -0.3566204011440277,
        0.29196223616600037,
        0.803328275680542,
        2.0662012100219727,
        -2.336726665496826,
        1.2117894887924194,
        3.820317506790161,
        -0.5839183330535889,
        -1.305794596672058,
        0.05685041844844818,
        -2.1924538612365723,
        0.4535394608974457,
        3.4922990798950195,
        -1.891311764717102,
        -2.03364634513855,
        0.5105951428413391,
        0.2881277799606323,
        0.5801909565925598,
        -0.4824206531047821,
        0.43914464116096497,
        -9.455133438110352,
        -0.3931237757205963,
        0.6654006838798523,
        0.4251653850078583,
        -0.28556254506111145,
        -0.44321301579475403,
        -0.5709410905838013,
        -0.821575939655304,
        -0.3151029348373413,
        -0.1312047839164734,
        -0.7812581062316895,
        -0.4798276722431183,
        0.6944796442985535,
        -0.7234857082366943,
        -0.9185824990272522,
        0.46771255135536194,
        -0.6771624684333801,
        0.8407683372497559,
        -0.19754226505756378,
        -0.17983926832675934,
        0.9354395866394043,
        0.8573631048202515,
        0.6517171859741211,
        1.8644558191299438,
        -7.433365821838379,
        0.0413505882024765,
        -1.214089274406433,
        -0.45895570516586304,
        4.774873733520508,
        1.472894310951233,
        0.008620441891252995,
        0.6615504026412964,
        0.9599406719207764,
        0.7057069540023804,
        -0.19833630323410034,
        0.5461792349815369,
        -2.4914746284484863,
        -0.39830929040908813,
        -0.35642537474632263,
        0.05742798000574112,
        -0.026473792269825935,
        1.3038005828857422,
        -0.42661821842193604,
        0.14762625098228455,
        1.1770764589309692,
        -1.6116747856140137,
        1.650260090827942,
        -0.416985422372818,
        0.9803335666656494,
        0.8544692993164062,
        2.568387269973755,
        -0.9644014239311218,
        -0.2716195285320282,
        -2.1748738288879395,
        1.223191261291504,
        -2.2699851989746094,
        4.977835178375244,
        0.4231836795806885,
        2.82716703414917,
        -0.6343762874603271,
        0.02329999953508377,
        -0.2693118751049042,
        -1.409393072128296,
        -0.9999359846115112,
        0.0256055798381567,
        0.21509651839733124,
        1.929370641708374,
        -1.13303542137146,
        -0.0071524628438055515,
        1.567974328994751,
        -0.06821300089359283,
        -0.24378828704357147,
        -0.44906893372535706,
        -0.7469927668571472,
        -0.5689202547073364,
        0.4531157910823822,
        -0.5262210965156555,
        1.1537342071533203,
        -1.0189090967178345,
        -0.6358236074447632,
        -6.8261542320251465,
        0.9930016398429871,
        -0.8746618628501892,
        -8.086968421936035,
        -0.421516090631485,
        0.19014723598957062,
        0.8126268982887268,
        -0.19304458796977997,
        -0.9849012494087219,
        0.5603381395339966,
        2.0916671752929688,
        0.21594436466693878,
        0.545643150806427,
        0.19313012063503265,
        -4.675806045532227,
        0.4983881115913391,
        -0.22793394327163696,
        -0.30226296186447144,
        0.463815301656723,
        -3.09126877784729,
        -0.7790216207504272,
        0.5340303778648376,
        -6.4330153465271,
        0.3274489641189575,
        0.36300912499427795,
        -3.3217477798461914,
        -0.7765916585922241,
        1.8067189455032349,
        -0.8368654847145081,
        -0.11684933304786682,
        0.8718417882919312,
        -2.681413173675537,
        -0.4536665976047516,
        0.4266284108161926,
        0.05801663175225258,
        0.037169650197029114,
        0.045986030250787735,
        1.4216426610946655,
        0.5451399087905884,
        0.43002063035964966,
        0.9509455561637878,
        -0.20959143340587616,
        1.74457848072052,
        -0.2950080335140228,
        0.9803824424743652,
        0.16614167392253876,
        0.03353668749332428,
        -0.31935375928878784,
        0.08662449568510056,
        -4.313724994659424,
        2.581437110900879,
        -0.005935328546911478,
        -0.9116086959838867,
        1.0947567224502563,
        -0.11818426102399826,
        -0.23751990497112274,
        1.156056523323059,
        -0.17496749758720398,
        -0.12586857378482819,
        2.0428526401519775,
        0.22037416696548462,
        0.6435849070549011,
        1.566025972366333,
        -0.8590855598449707,
        -1.733399510383606,
        0.320720911026001,
        0.4790630042552948,
        -0.3105599880218506,
        0.9045167565345764,
        1.4369384050369263,
        -0.7722959518432617,
        -0.9151666164398193,
        -1.9712331295013428,
        0.8249852061271667,
        0.6505638957023621,
        -0.5654926896095276,
        2.11002779006958,
        0.08710207790136337,
        -0.1683783382177353,
        -1.988922119140625,
        -0.14750950038433075,
        -1.3757470846176147,
        -0.598612368106842,
        0.28895512223243713,
        1.7726695537567139,
        -0.5983457565307617,
        0.5969048738479614,
        -2.1410744190216064,
        0.2813173830509186,
        -1.024924874305725,
        1.1522502899169922,
        -0.2890056371688843,
        2.014092445373535,
